{"dense_14_weights": ["16712484299326800066027630624768", "-367901552129875428032919896064", "9047131770777874267381235187712", "-6620261544934290784325575114752", "-11259657030952144768503140843520", "17303187215455260944114212929536", "-3224576603370292603755299864576", "15707607024175826076574236540928", "938547519995496760096407420928", "-7911219630501780428996026040320", "12842723631072748609455733604352", "8159497935001856437234608111616", "11047739588328617961952196427776", "11620242126242780597813577252864", "3457343180678893305053226991616", "-4988547165369484458068218478592", "6384119042274416231057280991232", "-5686216442480357532847390588928", "-1398770392392177178128041377792", "-16547265243263347155237236375552", "1106200219291697645329808621568", "-1017345078244387111960785715200", "-15176435242182648382937710460928", "-7255948590810612014002974228480", "16384864193285415945053082222592", "21193576993895216432923296137216", "-4567750008475667504425072590848", "-15436980516974354033412036100096", "-7063421109407884244785142169600", "2852900520379057262738815320064", "851120422572606007440006184960", "5957944885566408310502335709184", "515260278144728574010660487168", "-9177578493491751599219555696640", "-2252224570701685501275494416384", "178227947908473237246371168256", "-1379582775130436139353045467136", "15270186230567943260806999703552", "-7633353471029546179021097664512", "3278404327720088871416386027520", "5012434632870704819588531486720", "-4862247662679795111613727506432", "-19504816257212151409177264128", "10829262514207862177499296301056", "14397054064461112714925560561664", "20367063425244365217276876554240", "-3424498177317238348662928572416", "13060534587066896733233370628096", "12915827375384845235650216067072", "-4771929419159295973286016450560", "-4400348539076355284317040017408", "-2818758339612955809244057174016", "-1998960807237246214149070913536", "7102321319968533975054250147840", "-13059178172297289119299350298624", "12015048284709247735172421386240", "349989729397146452608856096768", "16673658437704056635452767076352", "14356446246180257320947180109824", "19213143730422201670019831562240", "-1895051517421184510982019350528", "15750944596957371303229103538176", "7142945458747954166526489133056", "-7691207220590114065491249070080", "21529160294310402116271634120704", "15391979462265019077012773404672", "18198788476845448987836741058560", "21977633087761201871954034819072", "20975191798136751360287673679872", "-8406738376685793286326704930816", "-8824764977832508413558717939712", "-12326870148139907882091909480448", "23562636387044828348844506873856", "22909354634789835806158434074624", "-4169193762116755787366289899520", "15003900975984707351011169140736", "15359864347866956452986703839232", "-14443419996420792587663066529792", "4091364024544330672070587318272", "6234186248737080498866458984448", "-13147200061223430269509706973184", "21777754128449397542724814503936", "-7523964422704626265462396682240", "1647800195404871130227350175744", "9193645117634430020951400775680", "9021653054666586150209715175424", "3964001876059200066571529617408", "-11489499216703097681827453730816", "-19476381283014189099666227855360", "-683225635881027292714370072576", "21761390108555093922215991705600", "4885213626475014222045620731904", "-10216678040744376511350532210688", "-3222778628445070746515218104320", "11805363728074549148707159277568", "16706685082170108689876565098496", "6842992224551360641529678921728", "-10207987073027166942213569511424", "2090843400768326682628851761152", "-11708415130896373576670772199424", "23636378444189681499243234197504", "-2429546334261027916562519031808", "-4170960002739212760590535622656", "832306590062717066822964740096", "-10811340188932075299984277241856", "163401813882980945397840609280", "-3859596926657096365442848522240", "-7140170369529028785255951106048", "-3309655060157127035582540677120", "-22532331775129899863959517790208", "17648105841049510793949632004096", "-3092680983061607138851094003712", "-12804428487884816001088566067200", "13863990313560238126630619316224", "-8488881863814058302175052824576", "-16346598064317154087786107633664", "20472489010269678569086303338496", "-9866969651052813500724927266816", "5389393117230746282783894667264", "11601222096322783637007924985856", "-12102971041718180485790452154368", "-11888320217816505002675497074688", "2933389592523179658561577811968", "-5021345020624174443920703356928", "-11117079946564254247525818564608", "-13274850538516538964066932097024", "-4176729601213323578326820847616", "-4431971620665834754269004169216", "515800214638913957765813633024", "5441040846096322470385691918336", "4052423314968723851724126683136", "5813310209433533690669663518720", "4320361171147372959601780588544", "-8460498098958236231096713871360", "-14552836245576653830378198401024", "6393111032520709842858745528320", "10314662687349961820589642481664", "6434116587396218449835604312064", "6027143799481149684462517223424", "4970700397957423494876618555392", "8968114565819132682578677465088", "-4060488361342827946605885259776", "21075774426328688507623227523072", "-8261388620930616613337194037248", "-17860219129655815170426878820352", "15536753164867149379200536805376", "-6730129932346687898352047095808", "6065252768092861639936780009472", "13564006251755244428589854097408", "24224148506279757286951979319296", "-20203055712852166164919537893376", "-3293783979765771280119704322048", "-3383309772411513029023395479552", "-19460367851607573721618069848064", "18071831922972799090425797279744", "7995114246679757235203935830016", "19910211566937816466784587350016", "-12980709215197742768827521826816", "-7960666509912748184185270697984", "17491478620786059052703874547712", "-7561719176051191134588470558720", "15149247709425334987427743268864", "16674949570479405059411353272320", "-6414328285117856392189426270208", "17839330100418693992917130805248", "6586891565535468175216160538624", "18769772603930175649454690926592", "-3273711882151254688274764005376", "32753587791279565798251692032", "26942203022887359582285718355968", "6053861664557542796538111066112", "-3613154678245560075263351455744", "11019877474963959603362743189504", "12546504164270034866665003417600", "14290616608524781918496904708096", "-4993387099888311625969154654208", "-303911994019183148579451568128", "23425034032404652026921100509184", "-11791312383273168313809549393920", "-8422100197075636379249696309248", "18875565702404651848533228388352", "-27416483964735292441589746499584", "8650008705978115693209066668032", "-11070963053323414988398302068736", "-14495536788504379251384649777152", "15469209270399460432580528046080", "-3430524974759472178756132536320", "13223183466837848942398339547136", "-2331957459745638946549478195200", "-17438473268225055636538882260992", "-21889425024258840068850773393408", "-4752540666864316550582078799872", "8441644900801346089117171056640", "4578432077017782367812776361984", "-2195029383481352684048264200192", "-9704317748967312254987021582336", "1514055825286539993657724895232", "8467682745104205972281992675328", "6657484975383135023929365626880", "-12826090020720670926640951328768", "2072572451509308436425576808448", "7043958612637908329701547442176", "-11108376889588848532097108803584", "-4875411353698123905039809380352", "-4956476176763837768007025688576", "-3747649186834962089235881918464", "-11118888499590397732771179003904", "4329767520718339485552875667456", "1701523801018453087950764769280", "-2605369332035503095330201665536", "-10176819756471682187460469587968", "11912583359016170610211850027008", "10261141123463982957767050657792", "23613130800678492180213634433024", "1594551848754125173598241947648", "12228860114092110665640130379776", "7137744659871972031816903163904", "-5770869659610142518862428504064", "12991581085093537128995654467584", "6598900430164610094123104337920", "4029750213453306385209806028800", "1709370787397844194095135719424", "-6935221779792670508582600441856", "-8194075026831564253574966804480", "-3199683914050062678076218671104", "-6790166397474569997797130502144", "-6921640102672209957119363907584", "5037231212588275382248223539200", "3025718279681697925206825238528", "-9354253935084782543384053022720", "5372547944860236039863538810880", "-721634947001049757624223924224", "8761638498309691321943085547520", "4390319894939742127998264934400", "1407030075823239228306927648768", "-3327307492743684947134306582528", "-14339081235707312787481700597760", "-2268225912850104733031905361920", "5079622800915972161573882953728", "-2633107832735105858086541197312", "7095249103923788394382219018240", "2334652004281832503151251423232", "-10071866256978928348343765565440", "7104109925718653818918227935232", "5986156378492935296923279032320", "10458221419503379420456826175488", "9942192037863784764548082302976", "2096015034308910614409597943808", "-3227615540649348877843217514496", "10045415564508670069315781787648", "4440655939291036442945505984512", "1736104519625619748178647580672", "11673062513153382975714839494656", "11891137014976207088652562464768", "-12811498286077922352502247784448", "-8474285293468031269519650455552", "-6543807262713132213373394485248", "-14299959187258763772759034036224", "3170855566724077327118881521664", "10760822805707838790660830265344", "-17329358041598278436488252227584", "-9960628156612907859462351486976", "6373534292260780345318141067264", "7616493187086290753236057980928", "-9322429567346337237674500292608", "-4900161389771639304476275245056", "-313855219990854158755601317888", "19954465505490629582353881628672", "6823624023995314667521711276032", "1652764347051663701275987410944", "-10603930830689891445625812156416", "12913749231900927688098896150528", "418297372491257812128628736", "-10103779480765115329297659199488", "4197417646532933823736273960960", "1321135140760982566300819652608", "1472338666450460725582904688640", "-4110092703341800507245135396864", "1631365604465847505740453904384", "22996747882289777349197943537664", "5364471715922300509661914202112", "-15892673015419892354525782081536", "4580028765794038389295269543936", "7515468696507284458937149030400", "1858913400126899304719821307904", "13840047537702770395825563500544", "-14116019914878578329198314651648", "-10573930127550334808026303692800", "17781428598288251328594578505728", "11597874580728270728823163584512", "-18438344381557005446579818070016", "5060332576075291331147683856384", "-18677778184760780827776249757696", "-11543608318537409254428952756224", "-12995823205794564862769698439168", "-5375072786434501192894912659456", "11880329218148852303830689251328", "-9309481367355354751898809794560", "-5543327455231006437542994116608", "11491428662311202629990284787712", "846276332371273914251281956864", "-2936914820213175917235021021184", "-110499852813753477245156982784", "-1415579296988098982173156048896", "-6146927192003116179665341906944", "-11844241573507536008336535191552", "-9184228794425451674309614370816", "19592284628118102442532833067008", "-12096112805543506694482344017920", "13573788879487566007871576473600", "-1836892211859709026987960958976", "15995418411903120073454885273600", "-321640154474660357761864302592", "-11931642074562395239151092891648", "-11162000003243675023770375946240", "-6308254715853229599142356975616", "-6899873997752958366143366561792", "-1074118425911538149520366895104", "26295531677014019831926938927104", "1587518771682789616545741930496", "9526893982291939855363381133312", "11706806050630466505239238279168", "-6266573975907466221771424792576", "9073800069895663179660666077184", "5418321503168304744305438752768", "11154468395387475884011956469760", "-4716310066744830825188015734784", "2785945977248430447841475821568", "-12197985357584972651147309350912", "-10773162311548645310647056203776", "6339885050997626756869369364480", "180133536121106727961582632960", "-8130276989015951235452785131520", "12817197162391585714431812698112", "-8017383869202878319231198298112", "-4703858130802800144688542121984", "5140791425073923361241078693888", "7680178794800679610844991979520", "1222882188181306535299248029696", "1185698198937327222972282306560", "-4960013493712030172972215959552", "-4601452140243429232900237688832", "15793006752999223096104655519744", "-349489687455008351616468254720", "17374068954110905881885585440768", "9224141480360028656512538771456", "2499009700698809990654667522048", "-15269341191420032635013880086528", "-2433928539241403495492182081536", "2158713856323039030954678026240", "-17548574978320638373996072534016", "5008102144964660892283678228480", "-1017828119667186882230404251648", "765078603023266167989171388416", "-2930350050781213577159072808960", "-11395122004743242426045666689024", "4973568876695914106250902634496", "-7347006092469805498071018110976", "-4285781359234571010345778806784", "1277401644773513548591236382720", "804924269132718264187223015424", "5001307075164061965349948489728", "-1322288455992894922533489344512", "8655042673090991009092543184896", "-7703663387772513397192834154496", "-8676120294755972068753545363456", "-12706814981505852383006090592256", "-18704090455224693231763729678336", "4143155615582441000544174604288", "3695937384900946326287825240064", "-6205373919678205041745686691840", "-1362430384486016328793667403776", "11378785790142789942007862132736", "11328939360748439551876377083904", "-12019011143545944489607108231168", "4807421667834452063911627718656", "-5456130658176752271744374407168", "-9687337781367914980913685987328", "-11086831413631676610945495334912", "7586878131283191182343280787456", "-197760373481327486036290306048", "-10985892152322953148003403169792", "9548325214759158194057984868352", "4057954755056370587512994791424", "-8038076447994312119500056559616", "-6575869184375131793715776978944", "-226177780475973520467131629568", "-4763105167370473891282542395392", "10181514015429245792545853669376", "3551382195640711368323389980672", "-10415201794212392841274906902528", "-1212805715916954875213748633600", "6714286355017728375702935306240", "2612513176935060842780834136064", "19159590734464912826838697377792", "-7913618743790805660593230446592", "-16447219378135318903255252074496", "-3633293266780155471712900612096", "-6023880304231099993005397901312", "-2724858048888938524671691718656", "5648743973312672679633610604544", "-11342441853227715345128670363648", "16073136626068685739209221210112", "1165092511689178224175356051456", "-5532145495862480924991549341696", "5829370788947114039255635066880", "-4903162548118832621402483326976", "3444345112497851715824079863808", "5702104750064642796775966507008", "973529753090502929038939521024", "-1973719645049512371610380664832", "-2635192625311031286098321997824", "-191240258746827161325482803200", "-1211664338827511213444179165184", "7071929529326332004916724236288", "-17952075731281773924379403485184", "-3904535117223811361125026496512", "-2544514121896286988276548501504", "-16701895318072795529086379229184", "-13031412772998199931043873554432", "-3890670551461560986434908717056", "7412472447916486704454294306816", "6423094206235882068335220752384", "22430854541831447891034681376768", "949937263489268537037254819840", "1775579725529223686448975183872", "264740209606836550753394360320", "7145586357200902323958634774528", "5217729882085837591177729146880", "1096878267854512965677972717568", "6365614619216484909594640908288", "18616598075807543289131894308864", "18038029148130554444071837892608", "-4805915950726122043274531176448", "18856737891689973613766354403328", "5866736268179762997787453554688", "-5818558156416480795917063028736", "13198288057434524883803615264768", "-23274687181774098284237941637120", "-676004495286877934910879825920", "18543421795946269785186929475584", "18691715890535117887531437260800", "-10713666236262130950443066458112", "11920026715287537882040515952640", "4205188923932871563728578936832", "6016647301052345666653130850304", "9516371491958014123026738577408", "2857013588248841134848459407360", "10828465832092736136873164931072", "-4437142498627781426906516160512", "-119927254694500636074614718464", "13578538749032831885898997039104", "-11635873537090397753042528108544", "-622094941770666502037530738688", "13484125269298388191241968812032", "-1507985506514800036914231508992", "-9024882699993686632049942724608", "11714899808992786447563896127488", "3282239644882816282473141370880", "4650313597326248603911630880768", "59543020331720567347059097600", "8380290102067174236557070565376", "-10625120882456096665800062009344", "3651852393731424355145696149504", "5111160048772258992854442967040", "8864285971801530255909037539328", "6771289020801287563234093563904", "-5204785913335223756604150120448", "13717473339926223529172929609728", "-232200271119974973443900702720", "16931970826506934065841410408448", "11177639876572029481403549745152", "9619408239563768967586945957888", "4379070840188228003527623966720", "12272510798660936081251246276608", "-1900146988635132721124759044096", "3617846821582939354747679801344", "11781509203801913285831857012736", "3580014999215374053011718406144", "-14677262517708850308926482153472", "10966869704551316957939401490432", "13499054294244809246920415379456", "-8730150211949098883144101134336", "10196412817230176482494932582400", "-9942493060392868807212584140800", "-7947780569601475851812077568000", "-992815066670041575034116374528", "748507176793034912662563061760", "-9935798633666752798157648691200", "-12961635992541682764338182488064", "-35285293325227569858943647744", "-10825778389995732816217793101824", "3357844958947150480087384588288", "-4345434594877635272342480355328", "11382468178189336102474017144832", "10484411588459510746897660772352", "-3124668858017155323156525744128", "1075146843994711569376424755200", "-11152196823772419995792683565056", "-4770390154359471646689321811968", "-7950994498892921343473033936896", "7475225973823952682969529843712", "3505107537580412400088574328832", "334188577808669030852344152064", "-4128375288511832544254216896512", "6837032220260660519698377474048", "-6349018485564815280284274524160", "-4548473686281912242234382614528", "-5218316211108350686327461642240", "-7262985143543678963114351525888", "9689038739996112764162497576960", "12169522408087965821858027143168", "8104024560380109755609453166592", "-9566609613317919653010828427264", "5502057145601002226776874680320", "8067730189423639358526424350720", "-6064089781454392366670712668160", "-3391542859474543557360438214656", "-6105837616783144355960841043968", "2301031475006894762145378992128", "5057218987626873853708228100096", "18491683397644222500397029261312", "-3760450804570316301224139292672", "-3878777139248192264614149357568", "-1804778608618920921248359776256", "3240467026574762193284931518464", "6119619975589660935867078803456", "-3995755823868652820131655712768", "-14539938216007185351713258209280", "-2656170510595894138852410916864", "-1546560516029973431935343525888", "2683061554295947046557281419264", "13116353110010143391487904186368", "13333404860589573528143825731584", "-12210657318026173194156579487744", "4466027061004378858120477147136", "-7313591987278566954996726759424", "-6121887315964348172884240236544", "11320183111036970792763980251136", "26241700628118219624035622322176", "21005956542394304443525596446720", "-7296294676651520840765030793216", "11553004090007454152374769156096", "-9375634997130486874967906451456", "3997688896254216612182010888192", "-1375214775028441032316185214976", "15533333113723459593265293033472", "-4961034733798149630967549001728", "6084030408386025867592903688192", "4494171760779372136279517954048", "14175704582592952571553558560768", "-7911355030193577267463593132032", "-6721810709319009827686306545664", "19569742997285568066941261709312", "8324580986910602702242847916032", "-3405338214233620994530304065536", "18331605903091590607486660378624", "2712617674965340404277791686656", "10739178197833458469916890890240", "7431855155582368054012358426624", "2091568151797185652819088113664", "-5793927501767652341111599398912", "-8807687087241722354522231144448", "-1683945868485528927921890131968", "-1099601297705331191979674959872", "7561073609663516922609177460736", "9239045722327147612292903862272", "-2259520891370242143830786703360", "-131515828706667156557539573760", "16514114079437874794008443617280", "-363852179539212501697918140416", "4077477093654417426740737474560", "16415812694267550451925560328192", "-642208520652368620846028161024", "-10871039363756284917889617625088", "7473769218211317054814008901632", "3519781176947439865353864216576", "3283771656127722921294787772416", "5294720927370905057483479318528", "8498479525895978843193045155840", "19696820443740179427269676105728", "-3211568863782694097492755087360", "479237462150489113006000046080", "6389785882053859805313716191232", "-63229483780541444317033529344", "17548734556528827505047133749248", "6027381353404703959095346987008", "1230835408917096276982346285056", "6297045555653762757434481311744", "6501277856841999366321818566656", "-2190637809325875091742497177600", "-15108697919583821095649748713472", "-12858067317575297482941104390144", "17727497208549423106481761288192", "-5061764850940079763062416998400", "-6144793437931496359171985506304", "9727844654342832553355978473472", "-5748624215603413727418660159488", "11154734359067791102430391828480", "11806093919269596384728681807872", "16696820247482053315810962702336", "2198230921283147125760179830784", "-5702008035999073626441990012928", "658233739085725241528639553536", "-4725626351342236061265595203584", "9092445937274489412736746782720", "-5602648840736586483831238819840", "-3070855338545739527388242378752", "10296869717136873708396316983296", "-2775070480575177243785819062272", "1508766019247088731875151183872", "-5736074961132904069270622699520", "-752368712534475215989544845312", "-469186415107281223090331189248", "-7895227959759918114273012744192", "-7536215676960600917518869069824", "-4889906978738213116159123783680", "1951449569179208932097177681920", "-5930961056809699980008306507776", "-13804020339352434831790144749568", "-1031498577277525383023658270720", "-11991483902633319383299048603648", "9392969784457941042704018309120", "-13219834742317516419584403439616", "6991642952256995059480725028864", "8493574913845802292631262199808", "-9655955276016538822167488364544", "3214856839780590985190662209536", "6273302857019441247757839368192", "-665428812216889158890550198272", "-6707625778214561576264891629568", "402312643332977410604726747136", "5481850554989053507436248301568", "8106851633409278565934503559168", "-4152171179882217097614545911808", "-4821172292338203759802029441024", "-5494043176342776849977747439616", "1096304859226697001877544894464", "-7683629673552769569824190758912", "-3074019701878580819253035794432", "-2887988081136097356248193695744", "16187300326918173630693424234496", "2289934140445742273636163649536", "35600704904984916332411617280", "-2295941443959134817833925476352", "12300630413225172355854911930368", "-5737363071593703456656272130048", "8014655323628008101183886458880", "8961226106498968525541201674240", "-7732130568509888877684227833856", "10145716512984637008053629091840", "5644929812351788524587412619264", "6963320238155063527175708737536", "-6575580855567153704657609555968", "801585442692533836149654814720", "-3171679147438689793244150104064", "18532251321373030611612644409344", "20066893566652469495914823680", "-10995495859033971762167269031936", "1651452662537381828621431209984", "7481843633760523163071871451136", "-205802148033403999306435788800", "3553998311114357425857454145536", "750774668283449601508371333120", "5530349636557443393352523317248", "9550101126788172084315628240896", "-5758608129484701142457971113984", "-8563910822493891225330254872576", "-4717239126237204667708777431040", "-2525966328624576991992265834496", "2258287031455597962929352212480", "4317991072078018479104769130496", "-7057245916321292718960743022592", "8261954398214196259790956527616", "-14986305060680216423373320749056", "-5350477795097351369650102861824", "-20435445105305047101914956693504", "7440487490397326313634347876352", "-10316927005410100021033867149312", "2393317094183089257626277511168", "5502670675454456651083038064640", "-9937954148403125681976149803008", "-6975985549504256189724517990400", "3426222105536008809866059579392", "7059860218406209354551045128192", "-8217893283329611677575027884032", "834868228316616740129843707904", "-1841704643316139962075172569088", "17262526204438342506452145405952", "-6600725908152228184176910663680", "11502117984408235181153036795904", "15106983662771607551480015355904", "6126895895635011581555047923712", "5242644029839365676524661374976", "-10068964835011853238324470743040", "9064411551980535969489897914368", "6754503690258848244457885663232", "9782679111668912903462301204480", "-5459592417261218762386145542144", "3355132129407935252219343929344", "-4675754836737128667578735001600", "7671565802798835185289797828608", "22759708961134658548396604784640", "16849296016480948420470779150336", "3386305792823972983775611060224", "6509280945767848211458373451776", "972881164388279680486709657600", "-8911293238908515689423725133824", "9011608694494318003711668912128", "8874916056533401690242228944896", "-2043597219696239908023512858624", "4729865751960169662123996086272", "-3676577646825637654684080537600", "3255066317003883358855976976384", "2806931720551120795685200330752", "-12052528611894760083475836960768", "-14018046148605369551621776736256", "10272720214964251876002386411520", "10566034633022431664886297657344", "-8188729156857228363364416094208", "7668996835432154098293547204608", "-6879150591353124392830553292800", "11862335566249708163194362527744", "3852732343621869597331573178368", "-9328994639009754481407742181376", "3383482044340808113680791109632", "-8047124048828308004243557580800", "6201675815596003891100260499456", "-17904166001050446170185797730304", "-2631506610487026281744642867200", "-8869499464398618344224957923328", "-6866577762829132249413609062400", "-1386224160236216556552940683264", "-9788218409774387134340804902912", "11024426662823169452947162529792", "-10229444297399506995435429429248", "-9679809800289174685042790629376", "3548920218209066176009100853248", "-10882978715150798995619015819264", "513935786572545158878284742656", "3522472245821902029896760164352", "-4580758352526175818002204721152", "11509776529475493856974800420864", "372058368002756604535823663104", "5874973888714617080983901437952", "-1638658751704127659894162587648", "-4772581634638978065725770432512", "-7530008447339789604021340209152", "13274989564985794646422023307264", "6572669157730611870290329731072", "8850335572306087242547515621376", "9011080998374056218076909666304", "5553317413741391925728178601984", "-10157629268011119563941183750144", "8365382233322596436889181356032", "4106805936269723234176402980864", "-9909358821528871050792237268992", "7346585386284579607118220361728", "-6744377727593756110490546733056", "11546051557618850419991033937920", "15000277825303322307374574731264", "15859178516661649438611372769280", "6098568345829801590733332807680", "6283337545785152477222487982080", "12772405251849044088879774171136", "-919132322448213267379273072640", "9981364256733847786381499170816", "-2765402398564264150618400096256", "342814225752687547056711008256", "7356753661353358253106674008064", "15418361850426469129492386283520", "3870036303340923592023730028544", "123773999984116591672787206144", "2171123026514200843947096408064", "10147331637879642152631036542976", "2558166521177194995546505347072", "12499898864998071297350905626624", "6317602130290489911921185128448", "8057445253013267900822611558400", "-4586889117588896506204433416192", "761650391630293983306998349824", "423890609171551474915410444288", "-2612832937814348912197543919616", "-20909510858357088557225887137792", "7034492723470325783263598084096", "9075716217319752366902575366144", "554427019069671467055629467648", "545291468882298618039668572160", "3504022224425853366746981859328", "565968860543123509529519587328", "12087310616650892579461308350464", "8703726115846872125957960892416", "12666973622194632663924473856000", "14814109293711767487615697158144", "9089997258026859981343379423232", "10527277680171406268174392360960", "6005718611643029418913787019264", "1596568941484152182376239202304", "17129753508447526628081690214400", "2189595564153639829565253615616", "11882935662215941444331355766784", "2715415733774838463502649131008", "3089164822315257989896461090816", "5841027856162748101072739368960", "4541485792813084781947287240704", "3036148589421878042068896448512", "6863765801372708621953242497024", "7910722761989918816405221801984", "9366495517934200278407127760896", "4521864926760739350441806004224", "-5395056934695640820467393101824", "-4538568957041809585406014914560", "3720166373946207820549992742912", "4671830059063749773963051401216", "2568343863189620751253769289728", "11955688818040349828065173438464", "-9183843751551904414917470453760", "1540541727721294548760421990400", "9536585336124880530142413193216", "15280673662053100168897575780352", "548350693447765300123424260096", "-2177872006017926963143540473856", "-6275767856765635476645065261056", "9454907889900076953840914530304", "-7949408992680496757310406787072", "3296546979726500515098495287296", "-7321391372203810735117343653888", "7281228438624573524675255074816", "14931937248720507320128434601984", "4665490754297145562228185890816", "9165330261550325983736020074496", "-1602531816973673888951830577152", "6379341367435299216558842183680", "-2839512573621189955600825450496", "6569677670789975470397519298560", "10238967006080611429444589977600", "-6916068163569606131253143142400", "-8915450734802170399155539673088", "2026687672025835186099603898368", "4709393197667905724364934348800", "-16960135171326496081724540190720", "13997916324782966361233744199680", "-9288426110818036562877539680256", "-897973778311181753477888999424", "-5600881391188309895977818390528", "-7219177903081213453025111179264", "4300177852357451821872767303680", "17573785917362881850805395128320", "-1232057557362862941163650809856", "-9124677713014144848478175494144", "9174643826064637086897956454400", "-2131782011376574129515161190400", "461760777154957678170507051008", "-12174824756732795585418288431104", "3575629923036176889337765429248", "8916350780074873490576108421120", "-63603509373084168826893893632", "-15213990522768976838249957818368", "1097812691955211348115697172480", "16466293809717198522373766119424", "16289418290901021357080854921216", "-8948352255445892339459755606016", "-3569435387136471529446570983424", "12175633528106117772336166862848", "19278123493226487988160288522240", "3457549302531137599327514394624", "6927306337988743724061211754496", "7138751695079711017919433408512", "12274509153040759063277035585536", "11710037509346296409023227887616", "18328531604732310605495382573056", "7707484197825405432699493023744", "4050607508387662678703718006784", "6926559826295131690545830690816", "-4273478423399807832892087730176", "7635514425932107328670884954112", "5489545972293810429447840464896", "22987119997062366442450583552000", "2051427281114156409359437922304", "16824785045488261813953611431936", "-10354190934873901350715010318336", "-7324979464036426954507871584256", "-5067763540857007553027309043712", "7909887998711474914960087187456", "-2035893037679290779950404075520", "5313303326144201522527887949824", "19840814389188658293639754022912", "5364387091114927485619684769792", "7845969068313900433920434896896", "-6863081549358806741840358801408", "4920457138662784602718536204288", "3687940945067105361611731238912", "10106200354718893624220008316928", "6176147533526111574132577533952", "7372986512796233686350041186304", "8095786939845255672413005283328", "-5252141955541168010635740446720", "4406932953552886362117077204992", "7668642015704097204630770941952", "18948448213291758997588739620864", "-14388365514595542375046947274752", "771620100633200926453506506752", "23471616362086042918280878882816", "1366968087549939839400927035392", "-7939913484830333652457677127680", "-1215943256208173467493728256000", "-16290808555593578180631767023616", "-5964930663415051445188375347200", "17178632797186185314873410322432", "-20068788784548306604889145868288", "-11217341000488173903500900564992", "15623521397718350158956723175424", "-14243100988110648533414253166592", "955726582565811818411952439296", "-16097501317037198975596249481216", "-9567683743908647251032554864640", "3948320899252978711546415808512", "-8782574675653777469990647103488", "22340160926843958410348224053248", "8088349628202986473730212888576", "-3805646496336609212920529682432", "-3684610656665521961892709400576", "-5367238342660488588528229285888", "-7262839467982415400298799431680", "704907947129406844705695596544", "-656796704075522077011531005952", "1203571411601692256177078927360", "3486522116492566898471228932096", "6756188328388481230212838719488", "10703143745928205218106423902208", "2455289200663901830208712343552", "-1802142545869251222332912959488", "-14821199643643807287725348880384", "-5800722269336796364388035461120", "-18372600577634722682800946806784", "2971249522416051000425851125760", "10581090595179912256628088373248", "-4440300817331524645625436045312", "-7232355798977922718343995850752", "-550487696507525334932687683584", "-13295235445686880841210827636736", "-9893143499510380029671903330304", "3255103491472836508703099191296", "613873566176513490420617969664", "-14624633141077747042434823487488", "-6595749365015784563179232690176", "-6123006781273311319500018155520", "6247974652172695151918570274816", "-11419421413717496472457260826624", "-12903180802385856599853614759936", "6829043033981737242797331709952", "12495301320106076862599498039296", "-240260236227743500587409342464", "-1412625891210780443099348860928", "-10600354828115471372527031287808", "-15952904117604732409267993182208", "7908384094991874316266752704512", "1962981512572512879794699894784", "15446190113868178278464947748864", "-9600059381820836827645773611008", "-6256380917859385475884889669632", "-7029050743893330530033658232832", "14190677128868879753882294550528", "-10138288268286014919089646993408", "9208979737193331784717961265152", "-5992988622762487373704130985984", "2873077492308425423664661397504", "13288942986795786696356481990656", "4229715610961213160425017835520", "-1917150681403739932295648247808", "7372933320060170642666354114560", "-5894485951443197195863659118592", "-7496989056428655237372590424064", "-2208719712809851100308577452032", "-10386824678448578650657028833280", "-347945775846564881288883339264", "3810192661881270025932012257280", "-16190159436481562228691604340736", "11599066581586410753189423874048", "-14573513712795342447782372835328", "649748893220759966665964257280", "1567695561671386186482144247808", "-10334586993783030524017974968320", "-10060976857658749576052599685120", "-8491468965068033608608924041216", "-474580302104014931853414760448", "-308867966527227389402578681856", "16029264708074870846459134083072", "-8502960409446380466229093597184", "-11859656586633442144943213641728", "9951362949131381341467403354112", "6562323170566349873813194276864", "-8126358860434580222297562415104", "6183338828764089195778317221888", "9923330981689067127478903898112", "5481802802419178729583847407616", "784661916817339820075913314304", "13023248896938342340227082747904", "10616250993717584131545242796032", "20684080042921909425760077086720", "11537063194150015652077093519360", "9616037754378683381447865139200", "6343563207803804266133412904960", "-242575329172305515456971669504", "5146360946324887957848950046720", "13954218492107175975084814761984", "-1119501954527053684224777256960", "13416791727923312190098358927360", "-10634488848632290427274860167168", "-6452731022703734702553142657024", "9040143575077591903436846137344", "6222463899527187247073920548864", "-2528136803817967606846803935232", "1647546169867024606272015040512", "5020413845511616275798885924864", "8336062155419482835515032469504", "5132093203801796104329067757568", "3605026163265926212349920804864", "5330190810918398277469358522368", "14080316708647899485781717155840", "3715667658739966881733617385472", "-4563283632035101256939120623616", "-4485755219223215087965213556736", "7641465363279160340783376105472", "5789120812708864575512967643136", "6376185466583195227098271711232", "12257986763864085926346326278144", "8637239427008436172551232684032", "-12522076609158901669560890425344", "-12351622904296517414444018434048", "2840747793577381202960081485824", "8554081046654604675510718955520", "-544791238045501202261472182272", "14294011272226259797219479650304", "-18096475875805643306152182677504", "6482792776597181878925973782528", "223094604067705723542852075520", "-7549917037737203317270401515520", "5809307456044789653472211369984", "1500175543488634628788335935488", "-10855085169714830656671020220416", "7187543336696447644095987318784", "11985272866785122876867477504", "6495304554367283483569595351040", "1665717382745924645568376733696", "5127365094921283289626791903232", "-3316322588283756619138338914304", "7368120586372284803921848827904", "6191023365736469586127337029632", "-2935434792778512707467886985216", "-10821808277604118374008058019840", "10886941573987495750053702664192", "12522209590999059278770108104704", "1557653619350757269242447396864", "-8199548438479869487163449016320", "-4514914207760865040001832845312", "-5035373093603527697206700146688", "5407337807634196030938645790720", "-11258821663210791059743418875904", "18282133031775501137770159538176", "-10606496171279113688734538661888", "-11275548360850979069004653527040", "2906348037558584729524456390656", "5593370335071044204915368919040", "-2692584565208506384223735644160", "-365180902351764568032405356544", "-4391627952676565156765297016832", "-3065866403919644856441523666944", "-12158256428374977092578940289024", "-8794372582727396636106604675072", "-11717505044134055973435387936768", "9175758455670321774997035548672", "-5204862075661859478242156609536", "5566411893756547781634008547328", "-3228535230966620706987875237888", "7362030622555976109454266466304", "496953778910827285118216830976", "3800159484272833314753832026112", "11156256396674685920561346904064", "-3750393146214032393805171261440", "-7156881955596471611652501929984", "920955684815647031832023662592", "12936946100527693192703158255616", "-7819687020995478395662322630656", "87918846889484934551793827840", "-6930657480360715476133497274368", "-428375421730866845496276680704", "12281287600111338289059613114368", "7815092498418032997483851808768", "5422962569389805305707135762432", "9055083480356389490777865060352", "10036841862595963119208765587456", "2134145461353920729551711764480", "-6328592474916606505748438974464", "-2122899277801228189825360723968", "-2368738423344504231875326246912", "6545845511645002478161949097984", "1175188024535188814670357069824", "-343266666240678322025344794624", "13743147297557379408956164669440", "7854215151329491819521105723392", "5644929812351788524587412619264", "-6973029725875298421392361390080", "-812083754510067275902803247104", "1932040718492478416183210541056", "-816816472420267371378807668736", "1341219629865150208094800707584", "-14136075994225985027206690111488", "11005459825639235535825197334528", "-10504959700615500598980141645824", "-8190353953158790424975221194752", "-993959843863352902948239704064", "702032063720271093727716442112", "5773271190750806979717982322688", "5451298581675752598933073821696", "18227896992730130029105316364288", "3429807477285530896340944420864", "-9193394869989769792712236597248", "6040799221076606728305410834432", "7414893321870264999376643424256", "19405833207884757799547074248704", "830703252194453164880010674176", "866795883654775370719510396928", "10152309994404815195572476575744", "8565643817656308796252196175872", "1714746276054760642720466731008", "6559637541858075975101584506880", "-11560513937198900228808043921408", "7839738869102516442468586618880", "3802222818415460583097761792000", "6935381962463769446948249010176", "-860027939127254047027888128000", "4317701232112765871760133324800", "1186086868588333326251950342144", "3247982616163851439206786138112", "13362400946373030408899153362944", "-4467744037899686535205853593600", "-15413187647918518516624643850240", "1471664085843115762503418642432", "9022743505755878545725300146176", "11370133508051808041004490031104", "-1494534695614312769059156918272", "4531776002861394984073340911616", "6483654136243657302212951932928", "4225769677085991010798776877056", "-2759261962094986545382773751808", "-5767772391660289838916831281152", "-2524253885201092869766294536192", "-8270070521704179072755346440192", "-6256185676339517713273174622208", "6561446699347129267661532299264", "10415795376789823624199687634944", "-3564395073163043236759927259136", "28905102309614672735817957376", "1494750791104568884024135647232", "-3631392230928811467335675150336", "-7242368122615971077168912400384", "4395710495169403759488279773184", "-312022790679773284584040431616", "3913322496775135196938672013312", "-9951977083447745573088154091520", "11063772362548347174067149733888", "6564187334180195632000591200256", "-7446827097395385429026507063296", "8430348697942866994108716548096", "2758694673654132380642542878720", "-821486326187847506137727369216", "13060007495409544754913198735360", "-4745533732813830159885481803776", "-283506894009760520832622264320", "5044561836526963589906348113920", "-11783547452733783550620411625472", "6951658939699060814156492963840", "-6805449033223228332509178626048", "-6791789984850312444778760896512", "19417113694707581904376257576960", "-10356983553517211144108581584896", "-7531593953552214190183967358976", "10378241305129314783516614983680", "6148176616837687898917400739840", "-435336983284185824641660485632", "10436796836128168962222683324416", "-7022365988573771438012120432640", "-4537974770001468995166646829056", "4932809338224697076311096557568", "-3400944977805141432109421821952", "12259069961398460634086863011840", "8877299453786771931660162170880", "3467687354454425879586600386560", "-11451590929777441754796192169984", "3227624909824450891219321487360", "3309959407232215018477272956928", "-94259804484358150662484131840", "5732513465668319371721938305024", "10050211977697991110566428540928", "8303119531297893997818876526592", "1560330181115384058235246870528", "-1728382959300013659811152396288", "6160840114798151139522447933440", "15664375836866406937286743687168", "2078084699899568789976296456192", "-10063351792431382515066309967872", "3271737101824914191517881466880", "-4959599436618812162479879094272", "-1682632823929699988809512386560", "20357904603234964786649302564864", "6982519189096363453099217518592", "24117934701620055196920644108288", "9576705352837521421248799703040", "-5670571733448724616697517965312", "-1550372410254945809551838937088", "-1660114616034920646658200961024", "16473694853584879282181317328896", "12262372746737647800992160284672", "13370989155395572734556266037248", "-128228060492895515124021854208", "-18213021160519772017110556868608", "17444352274485841578215478394880", "-1479092330541737851467400740864", "-4792904282129609789467168604160", "2228978287232043248703716196352", "7082195122923589628553741729792", "-946200020433657362772297515008", "2135584385310717041926905790464", "6059960090854588793409916370944", "2442623435967526812173962575872", "-6130941565890351938088202141696", "-19065438382707505892083405684736", "-1334518100699843963093463859200", "18212104794748504128196129587200", "-8164473269212480443603111378944", "4328521722661226610188340953088", "18973742568215555883811116941312", "-13737426660578962983701455044608", "783909058263174809757365043200", "8667766012879525173841738334208", "-5775298559350300712843964579840", "-7511819553920777700773298438144", "10186602384204003766742191964160", "-2964861860616662203523997368320", "13066211702715807031837790830592", "3808491401021617339025906991104", "-22613366072818668457540072767488", "6462618826982362754573064470528", "-4338620786726832318656542670848", "-6855433884623924597681167532032", "3260699911323287530810107756544", "-4974383390466879462657360920576", "-15615316418180625670747992358912", "-5271722322578556352063869026304", "-14508185779355007116439600496640", "11546606454570053534782224072704", "-12871801923811939284994941255680", "-8727145426824446722330368933888", "-10906864671494744838852860444672", "10997558286482234319539317768192", "12156279834659907173878295691264", "-13189668416340672577787960229888", "10606974905903681081887722307584", "7369883804680192740573157785600", "-4078953796543076696277641068544", "-515658430307632279537917624320", "8862604355986446306727021248512", "2999832155569199678003429244928", "1413006249496776695803440791552", "11030422934888458013653705162752", "7157078406042158988893391683584", "-689028933162359868238900232192", "-15269442741188880263864555405312", "2812230442418491715357937500160", "2295053034597445517219163275264", "-4258337534203499313450773905408", "19806218559008746450547187384320", "-3556102144271941784278736568320", "11016284547428064925455516434432", "3192318835725515453486614970368", "3911620631452572702717979394048", "-7807568144116751545500480569344", "-5485325007794625951684353851392", "-3338522093109340054673468424192", "2466699495896607055845529747456", "-953901860156830987501380304896", "-6251655831293421697755550580736", "-12600198604548218621459578224640", "-6352484475889650422128157130752", "-4574975153636594335687704051712", "-3324705884379874265150338891776", "-504203404819601312621636091904", "-7151126864232196169466313179136", "-2155790975922665761267532169216", "-23681159474399846593132700368896", "2622948926841429225474191523840", "-7862371169371521915248260939776", "-12050353754345273365590540550144", "-592289366814182038178252193792", "9865865297316595536973833175040", "18465803922623732133654094151680", "24717789186202998817859752165376", "18791429301062752116490377363456", "15099615259901056386660181213184", "-14411381044349365685275003453440", "24168825642922552626659075293184", "18984066794715064816963107684352", "-6713774374933121580247447240704", "8797902646120671353296746708992", "-6271253727755194451306712399872", "-6578472001664762090328919375872", "-7355030337597497599218130354176", "6635582866309176787171213836288", "248759645870941945435923677184", "-13986175237222869082688997818368", "-5783470293427985798750390976512", "-5517371817883880349162052517888", "2959195020837218629267562168320", "7228102797944518452907379523584", "-17142198190834639620806115590144", "-134337697687971844533564473344", "3374107429072606471745532067840", "-4542766951950421385215182110720", "5558996342779031646276360863744", "-7062030844715327421234230067200", "3570268034794731105290649862144", "3461368903658210020204998557696", "1017671034868500706352015867904", "5671117563456280621769897803776", "7520567341151509157481472327680", "1873063725729761087381110259712", "-2403035044384061454247153106944", "-288785536374846278773910798336", "8983590629698929357958678577152", "-9326406933292869367659283611648", "9435156459859213142384565026816", "1842128371815914889600907083776", "13876948789420687336754294816768", "-1378930559650754046913291485184", "-18923398061383524266459652947968", "-12161927936089146721382522945536", "4710185648542663113788954247168", "-11604420914041483945804197527552", "2833590348262352790931233570816", "-7034406889737133144592193945600", "-12180603422150553512873383952384", "-14343143226461217941508713349120", "-17710531143596951400643934814208", "-3152533087001998007347034718208", "-9630041346610189438493074128896", "654538732875936853370473545728", "7844641063301053763772020162560", "6852065212827568433485848772608", "-4841879982702382742935571529728", "2553024657434919074009186304000", "5207530779408658772145320493056", "-17922648058980714621008705748992", "-581768878763645042571180244992", "17898945859361350201409416462336", "2838201795801272793918150279168", "-843943483328736309515716132864", "10953194335679836272715125227520", "18987879746750129357380130963456", "-2885990331219184181536991739904", "-6080657505349301052195473457152", "3025363762185095935201342652416", "12193407155506092050462697062400", "4505258517239602996783454617600", "-6936159906228691460822172434432", "-3053950324347158360323738566656", "-2145990667650232318034129715200", "-1854912006779702333980190703616", "631841717296650134972790734848", "9809811033838524026030231912448", "-3724068786491923843525944279040", "14694817329535474339172390535168", "16494691477219946161687614193664", "5298142187440414458047897796608", "-1413350037776729605974997860352", "-17629022946986893872426895015936", "-304964892850203764676297228288", "1481422837290499952858940571648", "-10240402001028493994274966208512", "-6229977977959001974709306785792", "6147010607884669589078396633088", "50360784829298069018515603456", "12192313077639340811059587973120", "4077767840314034745057254309888", "-2091433961031208428980695728128", "9795823157642672959164294103040", "4382046308861754509583869542400", "-6957262310872974620381256089600", "14095546756123404584124665561088", "19752389927964585471914220191744", "6326449049438429768221684924416", "9250523264058568901677564297216", "-6340818946193279057906829885440", "-9265228033265451443644102868992", "-16629041821405359131131060944896", "-16041097673997258836821158133760", "14634004734031399647797145763840", "2567847599140668945977552404480", "8151602440473953294094602076160", "-8677568587887870394504843362304", "15629310943468484618074391052288", "9599842379636216001708913852416", "-4410626524163263957903098249216", "12246572086275284597678750564352", "13163300535289057900858443825152", "15101415350446462569501318709248", "-5798837553984017157504668532736", "-4882543411570940409855988465664", "21219612420346437086829768343552", "7407234776803006323554879799296", "15356149318823280697532831760384", "392728619445459397122111569920", "7145801545996793727951732473856", "-8542781821481576543929327681536", "9156663472349508707182551498752", "-11946174571839982696460235833344", "14185602058278137540606878023680", "4806313687320775256273009508352", "8790597107392740149193997287424", "-643409286222700851273805070336", "8231494303263186063105059717120", "-2760673987452296432258830565376", "-17084823780361548934803735183360", "-4577575553074585403042497036288", "8694517727878867495534223949824", "10686542776573257130279358693376", "3896549859953801831768798527488", "5523736812324151371766880534528", "1965135516151611245326732623872", "17822383378279336121146099630080", "14302292414090620007066216955904", "-557534940678309500920828788736", "1547751459078021293501075947520", "2220388567052226404760135139328", "3922676862535858293835254726656", "-3028316865730959570617856163840", "4024596260452834317380739923968", "1414205957257016763430689832960", "3759205913207568136831485607936", "-469168092325327688866902048768", "6287263532384350985467346288640", "1816687434636489729591096639488", "-3629494821854926306845973807104", "-3612131322539256291666962677760", "-15202502100705179017202725027840", "-11002623685666419615781336645632", "-9101872536352934483726518190080", "-2716644304639021830401444282368", "-5105371107485034341051362443264", "-3790295556279142651660110659584", "-8230036943187640627634951421952", "-135646284329840954700860489728", "-12767732753556233547119534800896", "-6580600315570193644990989598720", "9151870081474736702504841510912", "2244344489977982444657465884672", "2621064513720104922248118272000", "9308223480040045730242528018432", "1128368292045971100506395770880", "4682689235238438180524849627136", "13070230172140206059214514159616", "-4679935906684265862579456311296", "-10567723502392433301843362185216", "-1453934735351284870170412056576", "-12351683350587498145902753742848", "-8300971270116438801775423651840", "-3732694472214874222687472844800", "3977044674495567397080140873728", "15547791866526050558194778898432", "2744839174835529115671235395584", "671971669868370983812706861056", "-7312089896947695778247154335744", "8910374455285608571250948440064", "8376672996014887266066349686784", "10678857635137966932615751532544", "8117925393916948569174812131328", "5291030076843621594613101363200", "13629464749184098139883494703104", "2117277319392837808677036490752", "16651791387478867222940681764864", "5119003559489918706939936636928", "323126490990944681375003836416", "6027665450972313396951402938368", "4161952296457264158609799905280", "1313085961538260913426979094528", "945479349529439591955525795840", "13379622094673440801492842840064", "-7911338709695012469969734598656", "-9871657260918369225349850464256", "2558115444061316277463874011136", "-6060204898333060755817794371584", "-9317270476411131807671441686528", "-11167487317538905825594367279104", "-8946969848771163010998479093760", "-7467531765445015375587112386560", "8391672138658845970236929212416", "4926895575346597214045727621120", "9569463282715119985177722355712", "-7919732281660596840329719578624", "-2534334966495131810625522499584", "-1189685840753326077305050628096", "1837270756756975857748290830336", "-3417632385356191965922478522368", "2658812920206116814571024941056", "1084071058837243036029782327296", "16646797314918039189819970551808", "18382512560429743027404362743808", "5686858986553482708253746921472", "-6755839553289522409695935987712", "12601153655945714178507596103680", "6846743521369624835858792185856", "-4226210028315785639475663601664", "5183548713462053565892086726656", "8104551047574551926615037706240", "5136707673655265143888921231360", "16185309226093268336442683162624", "15533267831729200403289858899968", "4945096558023805263585516453888", "-2575520046854853190034825150464", "6370970160597377716838589267968", "6950946882391307797572591026176", "-11611442355201805712050890997760", "1617127480625336210635351916544", "-9463324431456234002155218927616", "14081668287714228641199038660608", "-7074659283827021837593210781696", "-11015073203756811067022460846080", "5792954316482862564625960927232", "11208909951822181479636499693568", "-1760854857930590051272407121920", "14200337655093420255617371602944", "-1484347984426784999975789002752", "-12782629137505525007810264301568", "-6675970055627952511325210411008", "21924222745050627555015515963392", "2159193799873426038737036378112", "22650588898804602889829275926528", "-7239086493478627166274172485632", "11551477216697280875727115255808", "16894350263926346420553728917504", "27844143891275606741400405671936", "-3384812769436748916744848932864", "-7938995305670336341599487787008", "-6308133218808358328910299004928", "12295124965042647334593300004864", "17124643379008015590560207208448", "-7632301101103571644324515938304", "17533857515392649878423199547392", "8601629308065867655581087563776", "-11819967551975493869137609883648", "18261497876960499032387099820032", "-11938090484884219671168975634432", "-19254553066521461563141042208768", "17406985586327373005054485200896", "-16787182616794968388103550533632", "-9872316729952969005564652683264", "21303804432276039091814655852544", "16938485727748837302463901990912", "-4677390211139612357194818781184", "5099197727787172237170725355520", "-14302135253734070105273505153024", "15256451624331301458753162838016", "5730410539205099724272536911872", "10365616492795079211045158387712", "7007947130323227755845399871488", "-15605371794388475731156859355136", "13374038066312640829334875013120", "15467794827190511316446121820160", "12297203108526564882144619921408", "-2874233527623431912812974178304", "12774549886253040441035702927360", "-11553176966399659044346752139264", "27265590679634272886519620435968", "-4752440930484198343675165540352", "-6399107304585998403565288161280", "-25140751227008290668697503137792", "-9730507917923443581427856179200", "17022981180059162579371640750080", "-5513877417802284263532564316160", "-22206620562957687242451830439936", "-16050058232172242468264080310272", "-18705669312345109937465895944192", "18107162780051036628056585273344", "-18239553455482854283607833313280", "-8169540481785395161788892315648", "6405768485852075010317919191040", "-13040578848562518049446495780864", "-19663883259784778855404806340608", "9194375913292387064287510659072", "-4394377654453278630823166214144", "20828919027518298917923274620928", "20661422355210692045767733936128", "-13246726088249024230946567618560", "-5589886210858914843633865719808", "-3177123242635869372075145691136", "-2419226943464797441927227113472", "-17104449482117172824825915244544", "-20413597397892971523469666680832", "-17381852018537584864512343801856", "-13495808328419143967586329296896", "-4856607419268383059199135842304", "13671906507933308926319904423936", "-199854025216774777502492000256", "-1111127574258855696102940737536", "4620267861699911321375364612096", "-8650253513456587655616944668672", "-13834644848214912618043801600000", "18893336911952986897401409175552", "2031167497766144646335124471808", "-13001311729015615279222864478208", "-8456407093984660325969508171776", "-15536670957911415584416656785408", "3928071694005888576527381037056", "-7759712815547306449619736592384", "1067988416427454720461372391424", "-1503507040816037643136532480000", "14257952641804614252825518538752", "-4173760479400350049073742479360", "-11927471280484724768498356584448", "2639164551091375150251819139072", "-8891847062637104571833988939776", "4797277269050610806849374519296", "-12336817189783697050941391896576", "-3566984592268657772452147888128", "-20993412728089983051208845164544", "1422242442758632462698195976192", "-2328842964602856758138141409280", "-10131105435528774599848130248704", "-17173925240044605948867104473088", "3741289330329424428805046403072", "17212086192466561333395879624704", "-1075618778411543630240500678656", "-1879595249701684025154754052096", "19685751518935787882546066358272", "8130625764114910055969687863296", "8174263754962629517974469345280", "-15928912984714480093295949119488", "17899668797001479749655890755584", "1626090758883413974993917181952", "12910259063059700253671519420416", "10726795170663145823280375529472", "-7562095756444001091576391532544", "-3002559794449705185078860054528", "16983503707419646863671610572800", "-13817302807332540762532641505280", "3022342354330424073236458242048", "18286144247644982477371834630144", "11364492660177486181275311013888", "-12702257331165905231017448308736", "-4588154560690578119293057105920", "11797621767125737063472340926464", "19575125135034492396027053604864", "-1758073724082566596855995564032", "-2785588135205824517605762793472", "-16297455229749819411834301579264", "6066105060795689953504947863552", "-4657173949121106720820794753024", "-730027612272269417012327874560", "1816095514332060916781431128064", "11808833345176843134438566002688", "-13681753208734070080947886227456", "-10440122591057928807082300014592", "7775642831072368418254839873536", "17673015757562670228094452760576", "-3692245929910753056102859931648", "-9564609445549367249041277059072", "15777845614295436031624665366528", "-7412616310089020845326084341760", "1861440206205621331523604054016", "8466498602263893443005367975936", "9347253650126304033147916910592", "-1243318625814709486011715420160", "-4561102125393606658593363329024", "3293619868085758594209237958656", "10084686310833031683426937208832", "-6971638856719831790526861934592", "-15102759675957874037143591976960", "15489628027492751519341315358720", "13871153199041454804490753409024", "-14466110325129139562643126747136", "-7771265310679543846013228810240", "-4532401319741590651013957681152", "13501913403808197844918595485696", "-5365766475475107777508024516608", "10435903439947473751262575460352", "5859274173558191699206579683328", "-3566654555519902978687453102080", "11795458998834446491878791577600", "5173997595024188188097320583168", "-2884034591474502615189610823680", "14235617737287233978822821937152", "-1659285141806937559215705686016", "5732194309251941109619815874560", "8174736444958098837981779460096", "-2125804175430034691903532826624", "-11031895406536748631988497285120", "15946946531165671516695041146880", "-4286134667805353385722086686720", "-7944802985307765020154776256512", "7679550757837389810988732121088", "-1507304125699719741545637740544", "17313627498833452881666975465472", "13493493235474581952716766969856", "8536493593830851050277093507072", "9101925124626087720095617908736", "6193859505709285506171197718528", "17203444790707955964055079878656", "-88312201128042044519513849856", "14998698968182905601672408465408", "13171836760501356797461044133888", "3375778466786768792922269679616", "12530094205194585890247541784576", "9008242440549601068774699565056", "2135860927091953888350619828224", "-9356847685430765730278385123328", "9369898039653505652219338293248", "-2819120412895930390681881673728", "726191086183722391326397825024", "6839404737181654229453738344448", "-5633278185302342728601594494976", "13182460800604130158648362008576", "12394579665444884032908852985856", "-3165174824297708184626937200640", "2437295095417575334086445105152", "-3908429369520244985354048765952", "9230970097852121889405866606592", "9110354964366260529330844073984", "-6218355969592136737138268962816", "-3965710692705225344909976797184", "-16777931916423277245658698874880", "14717027714693434306370092400640", "-4164892706282021840419979001856", "11966240322593946311502008942592", "3633916468040166813052461645824", "1380464535400117559507346784256", "7779214602406419840151509270528", "-22449559042112525433625735331840", "7937539154520610520758554198016", "2128906732430348185851769389056", "-2545080503642776442044898344960", "-5414782372831382917396486422528", "7239063523888054488319853068288", "-9912902183106161528903301070848", "-4549401839079921373783263281152", "-15934526027294950816554109894656", "-12226020347341835901708745572352", "11552301704106258052824264867840", "-18384486736293173716846657929216", "7430290201108876916545701281792", "8951183096923514479761686528", "1628070677144487833924792221696", "7273165507870653755394552233984", "2711020986189084382795298504704", "1868797577628068512852219002880", "16260237239467163438061797244928", "22863913531082161124739578331136", "10398273205960329188941496320000", "20099840044225108355241473998848", "10046924303931549126525815095296", "625069768202351337822027251712", "8221497695660792694459414347776", "8830903903144511500507875901440", "-9191915144786561486602396237824", "-2123117942258850985877335703552", "-7504839820701232639233132331008", "311476299540909677761330675712", "2575631570261712639576191795200", "-3636361520510337400558304886784", "6713442524795637364538990395392", "-2476516275783332748401437573120", "24734653701386622894846903320576", "2637985848417250886806480617472", "11206290209571076578214911410176", "22345881563822374835602933678080", "3653159847005337576598140878848", "16119245056828787695932514762752", "9707772858959770865168331833344", "-17766239654290613127643570110464", "-11361640804169015271052179144704", "15587239116020075908165441421312", "-13737817143618698508924885139456", "28144375782873621438421985656832", "-5382369862681695094593439137792", "12235737693079898291015033815040", "23206339351636365609216753270784", "4661688984825912457131028643840", "-12966263760579167564818957729792", "-16457044318271326994558089166848", "3907960910765144316548850122752", "10325348382669535527864870371328", "4448484036204496070509022150656", "-6568431872732862595032984584192", "-4900639217701841986657577861120", "-13207987269285293053672282914816", "-3575496034501654569156666720256", "7495972954277269141551249883136", "-5601569269979670619978226204672", "-3167649797681914234204854419456", "17959862422485911750893685964800", "1792880209586546289082254753792", "-14090465640903564297703375503360", "8131967671774682294353611718656", "815885297307709203256990236672", "9603039988429096695876011687936", "-878108331453955537307500019712", "5824013434177491810067924647936", "-8215065001374623252620802785280", "19988522154754993300834529312768", "1806387688884827992679893696512", "-3621179830067616887382344728576", "-5201681391830453388883504660480", "2177506910420403345132779208704", "-10076015290391845755671357161472", "-1054652151248375938720601210880", "-1430428079483243116840131493888", "9241072486463731538104298766336", "7966967431284579631443839287296", "-8702115826655145439897252265984", "6000992316151246026155273224192", "4846317949386188046635917901824", "15650224151221998088167633190912", "12109126891991658177548056002560", "6416578700531069024398141816832", "15112536259061097543279440822272", "9261056634724871165676779208704", "12151259165731047618915740942336", "1637250050892821713248336216064", "20943551791585797285527263641600", "-451438061812723263304984690688", "6370040496642094067003240218624", "-2925650351657461706242402549760", "3326999518891138120352050184192", "15323061019140428297021123723264", "-13436456115305163748254129586176", "10154629923052655668958737727488", "21810540196677346285942845997056", "280281763265017662373219008512", "12376500179812547253601122123776", "-3386184598010556617200846766080", "12008540637022262186324978040832", "2724743503167530038557388308480", "-13781565751178912709499152236544", "-10939946926548499166218694950912", "2654497357261547492074617569280", "-21777742039191201396433067442176", "-390000489438839671603578535936", "12289411581619148597113638617088", "5912377449110583900334723170304", "-1019370406781560245400035655680", "-7068574155713991601642327244800", "15383206287592075713091930685440", "2816092355949250648256536379392", "5207200742659903978380625707008", "1990368215858607785461199929344", "14192784286572468052533807415296", "2101337783576946374837182398464", "-6557462684308589257216288096256", "-13652081333417448622483897843712", "11189226221627216087413933735936", "11900739512761406088187253620736", "12422094817099312992925165551616", "-725951945545029872492776259584", "8953091849121691493139191169024", "5700495065335825918029845233664", "3941250496596962552818146738176", "17418550170717806547739724480512", "5037342433763679928132296507392", "2513163048616220809888893239296", "1456321154919204148161282048000", "484300141251580276332375834624", "1617796167719310552397611270144", "-4797344666665054322425864388608", "-15395769444709510939475477266432", "-13177227360731018428951058972672", "10762954141927819381895837253632", "-6239331437025360360634008469504", "6460110910369572206350136508416", "9823420516252835713964486688768", "-252680286751281845242400079872", "13237803006774448653008061333504", "664325894080081987511601070080", "9427100178197301253564323069952", "10147578258746843536982676602880", "24985099609881267933195733565440", "18364558803082646169530801324032", "1678093609708501959915784372224", "-3946424094642003358371301818368", "-7202952305193255707556792238080", "16295647885649495541218115846144", "3158752103649550563479016964096", "-14127961684124731636186062258176", "6810797925512113259292666101760", "16086546031259851206015062114304", "-11483643180032884418105177014272", "5177356595413987435259241693184", "14532816434003835571245064126464", "-9266600164070714047757394378752", "-3793835895541884093198237696000", "3378714040908248016215749951488", "4407452187192410845347613507584", "-1654272935358815306657373880320", "6506689613273504253822390763520", "-4393353694284065039912190083072", "2685993501639967425963237572608", "-8401339918438304159747054501888", "-307064532546351334852629889024", "4765025243803476826069269479424", "-2519587129305925497494635020288", "-3097646343634219324528905945088", "2871006975446377710590361600", "3633961198295492554331925774336", "6157222404282954361717139701760", "15871196448234438467237126864896", "1417905119149310076876643893248", "-13084636941132553595089487659008", "-2305345375678462114526671142912", "7173829886661649098052707811328", "11245286529734385671503408529408", "-3043343511437314507602160254976", "-12857393945893772134490793050112", "5257257525146867313988509630464", "-4974564729339821657033566846976", "4330702322608356497562217218048", "3442678003792603142192160047104", "9051772232536465021468344844288", "-1923927163969862284305816879104", "3755998633008130525630990123008", "9203655023420839150517967912960", "1021698269005091939790255816704", "12605817691757787417863612530688", "13936984045622749821570203516928", "1911429742193868603383644946432", "-14108204209454769751583839223808", "13008618476669366097954788605952", "-8087393972342581109367607656448", "10668712329659760964581617303552", "-5356662659590499812507899658240", "-980709412417466759878872662016", "11428175245577326002311308247040", "-16985927603687974195166896455680", "-4854352168151891968473721470976", "-414302694054051576845139181568", "-4708015324464999950763062984704", "14185576670835925633394209193984", "14756406055415741622477796671488", "14462449697747346465502116446208", "-1510072112479454886869774368768", "-1216219420200091684345825198080", "14414183334399232395701972369408", "18459567074320340261741784989696", "2807614763639203061168909320192", "-9857663340093420085338039123968", "1420206762794128878996637614080", "11873470981974178512522581114880", "-20896693826817534258715652259840", "2983952914928561523793663623168", "-8098484657811725717416362115072", "9951179192406799917832848015360", "4593891820399014245698918940672", "5883300969760122646739277578240", "2010791204192267523424098713600", "-13813651568015315610246316032", "-66515655834441875810469019648", "1369098819307010623321346670592", "524407426464183350875266220032", "7528849087478779174642796986368", "-448629424902303576074848567296", "-1074204939665504321420681805824", "5716482504837319581550747058176", "-18396248375592204444087374315520", "5343282873081914904116839055360", "3264881887964789436782710095872", "-4691042610420520364464775626752", "7251855772448306686932006469632", "-3649598351540752879049456484352", "13628161527150553569633161445376", "9635327979219364211874064236544", "-7917076876097813307347477463040", "97741170834461516071182532608", "-3388117670396120409251201941504", "5461794475641646809427872841728", "3730120669144914677174523396096", "2835996110643385902988898861056", "-12930238980080471230041888391168", "3189541026423495939300433854464", "-19880515513104802715737104842752", "3470378423328888044129496334336", "4456333289319798954083095674880", "-3808063441281473760298061004800", "-1458223399696367767167682215936", "-2311160913333718288171595202560", "6441240182788297652247560454144", "3375770306537486394175340412928", "17058130698264457922626222817280", "11119488126796926588841833267200", "329319402396579934108244770816", "-3039545066512085342735233449984", "-2071806143655400213357459931136", "-2486359047575180155484601581568", "10969601876903646019874237448192", "-3442732103223030896847728148480", "2014749982904323078485320925184", "8448362901580944583441013276672", "-4420373790815361809281460469760", "7428687165472067918260040892416", "19332407889304643681992119943168", "5194423605672396962633156132864", "7118330520134780701900296683520", "-7380291447061255083138203254784", "11136717737578074283839745687552", "16893905379224728237017437044736", "1144502011571638134157437042688", "10561596666338626361185951285248", "-14871962438809425566771261210624", "-152282879217535811131417821184", "3904919857865903716859876737024", "6153426981672274233423149662208", "-21211853534436150396786504105984", "11944829037402751614188787859456", "8006817857539446460244266319872", "7021944677925635739744735330304", "-1072337451505654623003054440448", "2281906570772046232258820964352", "1597513717012181015076272078848", "-14019143853249579634912409944064", "12697907616066931795246855487488", "3744448857958987262153140994048", "-7571655941825513579089967972352", "-6974956753631764140296843034624", "3166458401286684017153181483008", "4850287155083437777873771954176", "3036381307642153858185027387392", "-6600760967000997008422977142784", "5794638350149585743066326630400", "1747673637487876845723292008448", "-8945627941111390772614555238400", "8369890922166849196396248039424", "-1768912952981231362036411138048", "13671100154411625968660375404544", "4430578031427273990487861624832", "5122741558124167140348128133120", "-2754973297749903648385503592448", "-14692816557304012127888251813888", "-9877101658347003707838139727872", "-3564470026563859343768759042048", "-3722444292421816685572432855040", "-6247334525951209205770563354624", "-12975670412381588994427346485248", "7951296125884915193452123127808", "5877688531642561730795704156160", "-5061229599033445385995315838976", "7798761119520858971962746077184", "-18738193043670202306153016197120", "-2251201517226836621336399314944", "-2947935085753327973134348845056", "-11280045564899945489534560501760", "-3584016543678298475579995848704", "4788246290946634623257025708032", "10874565800372100791192235540480", "5407050687752037556509653073920", "-13066587678645707181511124451328", "-31960206610325051054124695552", "-18258962759516767155007740968960", "8031753765957727608916343259136", "21633057797099722576804232298496", "2518397697415152154215370981376", "5862963210696745740133195579392", "-738552957152191781952355827712", "-11501792783362758845905040834560", "15985881196112180263895628251136", "21469141963069814236264171307008", "-14773671933971477756350950277120", "23528999235039870906687482232832", "-5555223889758924195936690241536", "-5103169653567516101324222496768", "-16211970876119049368261653168128", "-8135112087831499944837022482432", "-9230195176401748912104879947776", "8309721475198809487741946953728", "-1010276035629918019690338189312", "-4946578701078652798953706225664", "-10813771338755320319254611361792", "-18656967735701934601162857644032", "-9689950270064102194560226033664", "-7719042133123831094924271419392", "-14401427958076478443279647506432", "-5158274910277190128365679411200", "-12407321743583622224410256080896", "2650266116892896289963145953280", "-5090281899867514347007267307520", "-3135908543593567434251062738944", "-7058124200929242747056167059456", "-682885398820669500516013703168", "-16621475154700391167126574989312", "-7534184681583648340505362694144", "-211224973691944733255388889088", "8040054855098111460144463216640", "-5610009385589310153561437372416", "15013837137296119988198079201280", "2173621271720434475136626720768", "3146839348623068007591462305792", "11039069172350341841511203733504", "522289123975695479861049032704", "-15697886051660304843380424179712", "4085587172515302166559253856256", "-4139661215500844914914686402560", "8050392984244545961531963080704", "7070075037119043163762724962304", "-15012966710705997455192290754560", "-19290841392848833887078197493760", "12222759874406335246824563015680", "-12415468694682005210418601000960", "-3226370347055145809793270153216", "9028185485332873798955239997440", "-21791470600798745125341030776832", "14324674466714965251606727098368", "9542879608404704096940520898560", "-10649151909898396264534871375872", "7256236919618590103061141651456", "6147806081073976015075353296896", "-2931842469705527836875247583232", "-2297817847946904174141716299776", "-1322048030870519063156369653760", "3097809548619867299467491278848", "-1906544472956805886888657289216", "8832326204371288111731917717504", "-3564652876594076056431433351168", "-6199997222095468978491180974080", "4693132843162634058307842605056", "18105876482978966662614697902080", "3173349882921397210763594039296", "-909159440015029835831181312000", "3498250510331558223409640898560", "6479639898059626926038340075520", "16574567623973523940518800654336", "3276483949055631032972365266944", "4268147967229672029203514523648", "9316259814425933977681387323392", "-5914963341438739592139419680768", "-8697290399246153647546412564480", "13886338516261634161554237685760", "7532747873247036353731224403968", "1275357351212545210656808239104", "-1243146958348324208668907143168", "-13197623148233736837757526867968", "-2449008377683821476160173244416", "-1626108590539253290774244098048", "-945363217092892861640430583808", "7252459630895204194204772204544", "-1526192231589651255942600196096", "8622994049613007189671082459136", "6065329534882407168889373851648", "-8969982356210437284653598507008", "1053651387343326203506914754560", "-5078624228188970477875575652352", "-8397120767327849103927329947648", "585188136549765706406028115968", "-9548180748123714245871607480320", "4094183239555671987306002120704", "-5059676733818150394820405755904", "10273992004926486465894177308672", "2028910131029469230008654364672", "-9336771658807335390888627011584", "-7149270558636177906368551845888", "18021414880591590595323850915840", "4540753183766398316667415298048", "5176438416253990124401052352512", "-5369161743639495463545186811904", "-5876234798344475139213119979520", "5353021375021820549433684656128", "-15676717760558852686531319037952", "6595739693609227646145835040768", "-1836925306204020977461618540544", "9499728210199379523178558652416", "-633454651013607228034819031040", "-11525521579350154787346173657088", "-6090857816952299485857056817152", "-3555173084779567941757974872064", "22551974401846998358790143737856", "4678186288791828590506362798080", "-6037344715547057925438687936512", "649489956421771258279606878208", "10449322516545196135101814013952", "14296131728113863856791914283008", "820412120039256182201677512704", "5819557333606392286929957683200", "4680591748941406798906734411776", "7170322792858947058816885194752", "1109448376295410976179273859072", "8214494388387765147650341470208", "-1921954045916523757664049561600", "6326955589356848297845886812160", "-359890794080858402592537968640", "7400058593137773884773823938560", "10510425254245978337478988267520", "1396166366176727266885724274688", "8984606731850315453780019118080", "-2117304520223779137833467379712", "8465943100849780520899590488064", "13170593984758792958669446184960", "-2765493370232190151463796736000", "-3140293922004219501582309392384", "4695703321686589663590561611776", "1396316272978359480903387840512", "15236055836828583049946694942720", "4932033510079959388038228869120", "-2637144436046799104900885118976", "-2114872765937624311248545906688", "11585535074887464208836937646080", "13372493059115173333249600520192", "18896571997446275645072922902528", "16225182017475798035882842259456", "-5180444191957283198171441266688", "2662684202911977760845727793152", "-13591864738342443943291783217152", "8128805726293480231747167715328", "4113530586141329608960706084864", "2028456179384203936753552195584", "9619634308692036903242616012800", "-3190604276681847005659587936256", "-8826212666501496931995428585472", "-11861317650709592645429259927552", "3241834019445291435224230526976", "-1975969153768360292847215181824", "-14583447456255115855710933483520", "8044714055206906240983780818944", "-14173810195833616447636793982976", "6404550493088813271424402718720", "-6453201899310474600616690712576", "-10219841799614307995900738273280", "-2076532136915728702458680049664", "8254082477739775601919857262592", "7117726057224973387312943595520", "8034034404516430606854426460160", "8511500261436138206719218024448", "-12229977161549434582997558886400", "-3087951665255274709519643443200", "-5596330994403280431764224344064", "351459065394092445499226324992", "11397337965770596041322903109632", "9892242245311857323622159876096", "-449483153204542682015161384960", "6273399571085010418091815862272", "631450592015072939477611577344", "3611158741717376322495911559168", "10521247558183168497850957955072", "-10540926452674855431556825088000", "1850431123229300710944142262272", "-11127957861089146680839824736256", "2632508205528577002015886934016", "1481810298015686441509433901056", "-1528123641702213077877840150528", "-9644964931390422228340234518528", "7134170470686281380661884354560", "15100257199511271754751950192640", "-13353853840828354980633980698624", "-1533552171979465118358211395584", "-12348607843302398529282301231104", "20057524013761137490239233720320", "-3002543473951140387585001521152", "-132449978910109532555841634304", "5869526468971433561922675408896", "-6225793885697315743135648710656", "-24723876524383543036804595712", "6027169186923361591675186053120", "19338153913725272014459498397696", "-1109507160313389737522893946880", "15672161319144725149171851460608", "17808977599865629498227782844416", "14854187602483631674015556304896", "12425321440111864438192456335360", "-15428557930789098911951858171904", "6703329860314560991492573233152", "-19736803247372294057964733464576", "1252373177972168154872971001856", "-8769122958058925491163691483136", "13688645294831693081872886136832", "17178868537721010167562478026752", "-1362034159048637634081657454592", "9460415151471331397046288515072", "-1396419182788754176211884703744", "16588679415065885506875145846784", "14984234170751216563597049069568", "-4340042785722154026223290810368", "17037554780814616934072723701760", "23384564031667232700668636561408", "3939474282336493758903209689088", "18426945420003859108091513536512", "9131541993817916712932157161472", "-15029122795359327359483064090624", "21567463899979072027043024601088", "1648830351318910246112846675968", "15059125916350523226340921966592", "6390922272324297556737939996672", "-6828579410929915032508831891456", "-9473835436994873395514701774848", "337453206426674611024314761216", "10390689614293886620128564477952", "2374816902365526587365748899840", "7237373445592233236733613834240", "18411362366189026538029550927872", "4655861962375369944508944875520", "-3526327812492107985992191836160", "384061339118527902125540769792", "-6562344326768193129823751634944", "-11305802938412654778730850287616", "-7579613696033126875632471375872", "-8274107729478782126884277714944", "4615539752819398506673088757760", "1775824079660513293370912669696", "-11707879576758284295946377363456", "7145305281947841922675515588608", "-17445703853552170733632799899648", "5597915291689885403297676787712", "13303804311896309332801145012224", "-4990665807868359095696891052032", "-12108296359953582927305032859648", "7492135823725812308550732480512", "11691117820269327462439076233216", "-8374075014428535427969906114560", "3122197813641863021123426320384", "-6188884775961571307117281804288", "12722754668437471268674591522816", "-140471645625701986876667199488", "-8534127726001865220982193520640", "7159959880733210457531303854080", "-11679403329077261705736173387776", "-735372651110104322165320974336", "-205771150419810442955253088256", "-16470292936328483715683694149632", "-5434883182434115356684326010880", "-5464489171293567817858292908032", "-2453267423346323814742663102464", "-4339282069150161520815106949120", "3977662737820845376245709406208", "-9784362540872726274588079554560", "-4178705892696938593370171768832", "8227666239655376339823352610816", "-9296900076350625306077642620928", "1849924432195154729491293536256", "7385577475207520049204606009344", "9065202793929473744284743106560", "-2041428406775851263284089978880", "-4594066510179948559614663983104", "-140687731671225136102355501056", "13524866069419401194429566943232", "5267524327669944552254701830144", "10388785556127993579178402250752", "-594627127117861827344840261632", "16988867711281276973319781875712", "45297038473381777152321519616", "-4075945082409510787919091073024", "-8236754339504329314644206288896", "-3877257217261481772084250017792", "-9226706820949250899621265276928", "-10254823277130676905700036182016", "-8773485971341914687855206072320", "-9516709386724596411881068953600", "1945315177339029400007424868352", "-670481215448513597868940984320", "2252033107075004034379950325760", "4227167799796375329439324569600", "5000211486140036207660371017728", "14417782306564225146755072655360", "4644535234139945580113829036032", "-12076172783074783000874740350976", "1485264803545235244376156798976", "-3266307211506115084579688677376", "-12446964839060425144307221004288", "6404437458524679303596567691264", "4026273040564639808046057390080", "22197135330976990861947085783040", "-5773091665266594207285538455552", "-5413500911462591410471297875968", "10207525263364074153868831752192", "14292084244469794078314998005760", "-6172112139140237941947408318464", "6703989933812070579021962805248", "-5145226369443179628368488300544", "9307515049509751557546150199296", "2056209187193642075059988201472", "3182329783909494676273311514624", "-4805521840908927674163576963072", "14462109989592034754704024010752", "-22181131570976932400932325425152", "-2081906265531098084626189516800", "-9666907539479337555175738966016", "-1090186107864308734052739842048", "1299400619028768407512011505664", "9809912583607371654880907231232", "-11019824282227896559679056117760", "-4374838995356666994101564997632", "-4758927119737885732854757851136", "-10261023857659480338737104158720", "-2955977162536859390061788004352", "13359370169343256533558164979712", "18364643427890019193573030756352", "-12851690233876830314044529311744", "1657695253238416870022320226304", "15621492820193036811201566212096", "-6012972166560717193962024075264", "7218752965655618910870201958400", "4348065217461116705426640994304", "14212608252162508741740639289344", "7482709224647367237560961073152", "-662739858962611319948709986304", "5667395885320596985855564840960", "-3833482315564690953325433061376", "-7595235435474187113828024582144", "2049956925086050116625701535744", "14797522831466654775338728423424", "3765228177177978412065284423680", "12343538817340754389152758235136", "9094479954965991026323189923840", "10877519206149419330266042728448", "-13060349621416495694969640583168", "-10093121590739392758493449551872", "8115250041078141394811187363840", "-24360043857662637752480700563456", "-2395125798324960194700284788736", "8579956894897636198366129946624", "-17933571912686752410231350755328", "18380526295308116191670320496640", "5024494272384270552920812945408", "-15552737582054094006148501864448", "-3696704448333491808499176308736", "-11996745147800282249467369881600", "7185916727006156160541420158976", "3841067720619862944082126962688", "1344140999108248959495478181888", "-1599154229349398066866348359680", "2556477651807193358589440819200", "829824060892138425812705607680", "-5104385228479138610959389556736", "-2396542508269821088264393588736", "4134888074133551455275652743168", "6609402973222512185078364241920", "11722784423188313059041329807360", "-13231685842127198629384048082944", "6631124347886438034774897459200", "-16027739043690517184440654888960", "-7947113847011958383822227111936", "11804467914042214708488702001152", "-7810866093752660253889079017472", "-14235212747137663078049295368192", "1967495188235771549647112241152", "-4641751682440282896439068065792", "1755601017434272324707780919296", "-3433497118886994744582147670016", "-10768026794666922365912904368128", "17414965705662649172236720668672", "3813286303053663861990085361664", "-781075865047044200372117700608", "663781877461255404382983290880", "-11835655782336632911937771929600", "-3499058677241970603012931977216", "-2186377403621825686702185775104", "4639717060285871475538037571584", "1886147476528267863453014687744", "7795960642859721683479539220480", "6491770259733640115177341845504", "-1203033892959146101680275193856", "5270857336154622084889366757376", "-3334038489475844298721776893952", "15060388034906200899199315214336", "3360561415263824551842949365760", "7647313541931546109416017231872", "-5707042607574858749640053882880", "-5071150044309203033002954719232", "-2166763186661488135657165422592", "6021011523261154477973820145664", "11498474281987916688820472381440", "4845195461762675863447203217408", "-2240125489983254840666388168704", "-6986147175481026955252510752768", "-15322995737146169107045689589760", "157638146701172611935943786496", "-10756321974881413526243399172096", "1281829788935034483429538267136", "16094323051057432115495946944512", "-4610462264377017064139322818560", "-12128734459859987848132615471104", "11798399106427749270031676997632", "-761240414661717172188126117888", "12842747809589140902039227727872", "17063942004679345445069035405312", "-7801467299968066319370325852160", "-1677802560817429737941973860352", "3986951519355854379509564309504", "1558641765092564776764122857472", "-4439387473874805793283945529344", "5988046534011902769637932138496", "-1552748100606216007708783411200", "4897923668079532625873894113280", "5159506805687377435494705004544", "-6297950436629744307371748884480", "-9474154593411251657616824205312", "-6958623561345860692831975243776", "7920122160237422558238562320384", "-11185464044476575361422248116224", "59740306636275412515151675392", "9090530998776219840124012199936", "1116471404170870986626759131136", "-8546446680103738292272449454080", "-1229051336638799987977773645824", "646500433985591732159205343232", "-8308544585913414646240370491392", "-8071883454076925417056127418368", "-15439139658488185761118061330432", "-1193835251955562114204259319808", "-10086734231171458865248889470976", "6099710176266427607988842790912", "2474552526905096235135774228480", "-3272446439049573075186140315648", "10635848890179356885096404615168", "-9549983860983669465285681741824", "2273269249138082062291485851648", "16278817220388820673847856463872", "-6469806495442881532331280039936", "3465311815218883133258302750720", "-11130808508171797976433781899264", "13486388378432706777057018773504", "-3086685617690683289116432400384", "1253990191813766447308463931392", "-6251884922736238669984157401088", "-1896705176826689871864370561024", "1064477242500111481852085141504", "-5245266794405019614519186423808", "-6688863249494142531473451778048", "-6413295862467905498874227195904", "-11297720060382711368068764794880", "-6231317467767134983834881228800", "8991778079812269434044376154112", "-5320452913441402439467100274688", "-2801688911502907052611793321984", "2539534858676749234363227439104", "-12837595367745943352496630005760", "9384497027851171914133090074624", "8626999220853390456126884020224", "-9249129372588553234239128076288", "13956261576742324698390068199424", "15746257591554725385918767693824", "-3235405556399490644587730436096", "-4897813051367037887304408498176", "12812141434613957335223191470080", "-3811705934775972638001450713088", "4718774462028115246760654274560", "-10107772562747302449461713698816", "5195601099420701611449319948288", "2577381490385604815306578984960", "-8460255104868493690632597929984", "-1263697412798089564095414009856", "304443581369426818801866899456", "3651103161954718188714671996928", "-8704655175339245968478722588672", "4729157321429875489427618267136", "-985125316205064096596780646400", "3549147798494608629951239290880", "-9555998871399162052744432320512", "-9494285021696564655319444094976", "7955006923688222297703883735040", "-10711958024079015479419206631424", "11937402606092858947168567820288", "14327064513060343373485121208320", "8035111557421707241449089662976", "26431412521287064921905563697152", "-5287036994861434474449046863872", "-17352562163779961628867562569728", "-16557307790046885879791520579584", "21911105899907808828469953953792", "6326535487634532214207676416000", "-13155933341344326350667784388608", "-7085089895798656858112575668224", "10041397699547180849253645811712", "-3511632714691782361059050913792", "-15422596717572579175491382018048", "1933484780384008090732397068288", "-4069800414699864531481353256960", "18378760054685659218446074773504", "-5384197154058042606591007522816", "7469794270116424154087574994944", "7281967696763267870415587901440", "-7875734030918632218830875656192", "9632870233028087670761886580736", "-8074683930738062705539334275072", "9834456195597187856385792016384", "7188234237802357404669331898368", "11781186420608076179842210463744", "23534470833299446718332202385408", "4951562800001469011383726112768", "23561886853036667278756189044736", "-2838475617499415507426221228032", "18023908894557455575311269756928", "-8218541267568925118812670394368", "-3943010692590321452896518930432", "-1685349884709283867879664517120", "10224943466573081731017998336000", "-3702582245668458135546597736448", "16040880067349728203569711022080", "5647845136965789202842216562688", "-21709486087415759433229156745216", "20154309405953665087337035464704", "15905797114117628768846392328192", "-22904647077648256440152128225280", "19840645139573912245555295158272", "21625826002846787865081139953664", "6083700371637271073828208902144", "14860276961837030561168551313408", "11597525201166402100991673499648", "-10536743569338988814612341719040", "16008213682777921308639975440384", "-8903583314493923391862036496384", "4007445834312871380593770758144", "14658347664335159820859029323776", "-11638141481927994797374276894720", "8647902152737437201872141156352", "4029626298556795885719398645760", "17168419791862080927605492547584", "-19811522116579395828736623378432", "-2609234267880811064801737310208", "22419447117797564250142153900032", "9295400403871393358586419609600", "-7483826876567600962232976932864", "-14066449120571100074518662610944", "-2592835189137738620046848032768", "10229681246860151462753671839744", "-10048666970500523614481154048000", "-2681700001591606070449268588544", "-2894689156954221245763590029312", "-14255795918142421754377842720768", "-8654120867153534854346829725696", "14664948399310255696152925044736", "-1077090041134014633946118094848", "-6672669688140404573678262550528", "5204646282403058266934471557120", "1007502835357585786277885640704", "-14409533805696994531896052416512", "-13703605751849424117909875064832", "832900777103057657062332825600", "4213203195422551844184999854080", "-16102860485195550626727721959424", "9066620863915881704306673451008", "926417989457984556014963261440", "-6674130674993408853035894964224", "-14778760302746235730547288571904", "7983266773647533869291815305216", "-10277270611749281340215980457984", "-12953924254738361044832731791360", "-17987745087589503558179109208064", "-12292016816760418122985130426368", "-4336710683931841204560506912768", "13198726897507044994194033606656", "8620851833060650066773503115264", "-2521523526237493229775220637696", "-1264873319831255968710786023424", "2759718936054800875210812686336", "-10233914905080441894123492868096", "13058050244507588670279349436416", "15218283418354428386449339449344", "-5209816253670640228600102518784", "4552565900181307761990763020288", "-3517889208039742970695449051136", "16894837461031651116111135506432", "-16600084421248129918509323911168", "3564706673793048907429707776000", "-633161259828759502716982525952", "2399251106568667664930322776064", "10077820216640530397029193482240", "3393983680704345493664169984000", "12131585106942639143726572634112", "9260602078616696065107089686528", "-13975713193179924081811090571264", "551735119058708317455175909376", "-6597967139431867600400231170048", "-767893813467830009765444976640", "-14145113923653423994916793483264", "-8966109562347301820092427272192", "-6797796532785067729833288531968", "14978697290497381561976894783488", "-1540041534663428995939387310080", "-9643054828595431114244198760448", "5461651217932022475870670159872", "3740755287348609666367119949824", "11410518883981854343214724546560", "-1868624550120136169051589181440", "3691481284329846803149858275328", "-5374161256366511762497184202752", "-10496392043331891722018998976512", "-3509498356157252733251107160064", "6876777469969220875760605069312", "5735628867505466271105156120576", "7066643501180067038850321481728", "13395326041070234834472276066304", "11027360725787374157954174418944", "-6502053987218191958251979931648", "-14661135447275191155735901765632", "7928493367075344057958815236096", "-1576517395608569039227268890624", "2739401728730357417300700692480", "-3456216764046467374319694512128", "-3863827562562837760239732785152", "-5613370803830748629981707894784", "10488756467855205724151554768896", "8750850275691408031800623104", "-7335841058062754590328019222528", "2984138182810417465714687344640", "-10105687770171377021449932898304", "2815463714523051041085689167872", "10973174252700607249085494198272", "11292306490562477058624430538752", "-504400421949266634219951489024", "-11378047136467005403582116659200", "-13805798669233087951306137534464", "10493748122564394528013916569600", "1804154651780272320765564551168", "17994675859313354227237699715072", "255415764760148915928885624832", "-1729725320306968253681016766464", "3613527631860911188363748311040", "8918364850490351462781168910336", "8023736169922043388229691899904", "-9932645150666288037955427631104", "10621772157935764142986125901824", "-12878388151677199784738740502528", "15397575579884015195462488293376", "2746905833524160324245395603456", "12701084673120879040717983318016", "-2651668470843649259805805117440", "-2283592417827498832642948726784", "19600953835170558948344651055104", "15136494750954220264263767818240", "-10694509597724517536540672393216", "15873431752074905916581158584320", "-568936282304163205710321025024", "19216352219547458895849501753344", "-374719289289592129263675375616", "-6450114907230088645019078492160", "5972928312174712024493644054528", "7751566468911833270925979025408", "-13120658094853791085979032879104", "-4076608782684479219336004763648", "-2919337945490343920006674251776", "-14642814176478931450593229668352", "-7879686613885862248917577498624", "-10572404463165981146007824498688", "5263744016632009606825395617792", "1157263734754945063382929113088", "5186139441493487716213482061824", "807219112569801734018109014016", "7983218416614749284124827058176", "-584375096157143005328876503040", "-951836032604700763984777707520", "2093230878146338123420249620480", "-128522112809050842192188276736", "20377518215732392530379735564288", "18747987760660720031726485635072", "995163178401051814463012864000", "8644780706271192229343049809920", "-405932167236903610353797038080", "-7773989625014045412858429177856", "9434430499904534557565153968128", "13102485521933343980224849641472", "-15859128950703045238815209816064", "8362472348874784024465663590400", "14118475243218215641052142895104", "10305159321481971220647277232128", "3609928659695918437310648025088", "449856900177462917215954141184", "2324976064253091914894196867072", "15928049811679275248065208909824", "-7290505130901386381647362916352", "-687002622372958297913445842944", "3523636743617645821449295888384", "9952224913240766572068968857600", "-7109490854541758533374845124608", "18656439435118763008213511045120", "-9576910870226855908208499752960", "11619329387248971552786674089984", "16629923128327858195799421747200", "8273065635422274316535680991232", "23125982052406581207974033752064", "6843840286013820303895735304192", "15021310716712977625756112781312", "1760240119151316012337069031424", "11103161583603031021837426360320", "-9620493854949782904585832103936", "155407262995733128579832086528", "-1950451752030844507542104571904", "17672967400529885642927464513536", "-11392966490006869542227165577216", "17172210983232392404697371115520", "-8595471644403660541879721656320", "-4689302966166094913082373439488", "2937643802482403538627368845312", "11704646909116634777533213048832", "-6407619351281905007584394346496", "-261978305235131341532292972544", "-937245506887771804475248869376", "542812755383838135702742106112", "-6254317885948213111198253580288", "-12425398811364319774459637530624", "-6236345994713822033887071567872",